digraph Tree {
node [shape=box, style="filled, rounded", color="black", fontname="helvetica"] ;
edge [fontname="helvetica"] ;
0 [label=" persons <= 1.5\ngini = 0.451\nsamples = 1382\nvalue = [977, 296, 58, 51]\nclass = unacceptable", fillcolor="#efb083"] ;
1 [label="gini = 0.0\nsamples = 467\nvalue = [467, 0, 0, 0]\nclass = unacceptable", fillcolor="#e58139"] ;
0 -> 1 [labeldistance=2.5, labelangle=45, headlabel="True"] ;
2 [label=" safety <= 1.5\ngini = 0.578\nsamples = 915\nvalue = [510.0, 296.0, 58.0, 51.0]\nclass = unacceptable", fillcolor="#f6d3bb"] ;
0 -> 2 [labeldistance=2.5, labelangle=-45, headlabel="False"] ;
3 [label="gini = 0.0\nsamples = 314\nvalue = [314, 0, 0, 0]\nclass = unacceptable", fillcolor="#e58139"] ;
2 -> 3 ;
4 [label="buying <= 2.5\ngini = 0.635\nsamples = 601\nvalue = [196.0, 296.0, 58.0, 51.0]\nclass = acceptable", fillcolor="#d2f9ce"] ;
2 -> 4 ;
5 [label=" maint <= 2.5\ngini = 0.646\nsamples = 308\nvalue = [37, 162, 58, 51]\nclass = acceptable", fillcolor="#b2f4ad"] ;
4 -> 5 ;
6 [label=" safety <= 2.5\ngini = 0.685\nsamples = 154\nvalue = [6, 49, 58, 41]\nclass = good", fillcolor="#eef7fd"] ;
5 -> 6 ;
7 [label="gini = 0.539\nsamples = 78\nvalue = [4, 42, 32, 0]\nclass = acceptable", fillcolor="#d7f9d4"] ;
6 -> 7 ;
8 [label="gini = 0.583\nsamples = 76\nvalue = [2, 7, 26, 41]\nclass = very good", fillcolor="#f3c4f7"] ;
6 -> 8 ;
9 [label=" lug_boot <= 1.5\ngini = 0.417\nsamples = 154\nvalue = [31.0, 113.0, 0.0, 10.0]\nclass = acceptable", fillcolor="#84ee7b"] ;
5 -> 9 ;
10 [label="gini = 0.489\nsamples = 54\nvalue = [23, 31, 0, 0]\nclass = acceptable", fillcolor="#d0f8cc"] ;
9 -> 10 ;
11 [label="gini = 0.311\nsamples = 100\nvalue = [8, 82, 0, 10]\nclass = acceptable", fillcolor="#6cea61"] ;
9 -> 11 ;
12 [label=" maint <= 2.5\ngini = 0.496\nsamples = 293\nvalue = [159, 134, 0, 0]\nclass = unacceptable", fillcolor="#fbebe0"] ;
4 -> 12 ;
13 [label=" safety <= 2.5\ngini = 0.353\nsamples = 144\nvalue = [33, 111, 0, 0]\nclass = acceptable", fillcolor="#7eed74"] ;
12 -> 13 ;
14 [label="gini = 0.499\nsamples = 65\nvalue = [31, 34, 0, 0]\nclass = acceptable", fillcolor="#effdee"] ;
13 -> 14 ;
15 [label="gini = 0.049\nsamples = 79\nvalue = [2, 77, 0, 0]\nclass = acceptable", fillcolor="#4ce63e"] ;
13 -> 15 ;
16 [label="buying <= 3.5\ngini = 0.261\nsamples = 149\nvalue = [126, 23, 0, 0]\nclass = unacceptable", fillcolor="#ea985d"] ;
12 -> 16 ;
17 [label="gini = 0.444\nsamples = 69\nvalue = [46, 23, 0, 0]\nclass = unacceptable", fillcolor="#f2c09c"] ;
16 -> 17 ;
18 [label="gini = 0.0\nsamples = 80\nvalue = [80, 0, 0, 0]\nclass = unacceptable", fillcolor="#e58139"] ;
16 -> 18 ;
}